2.5363,2.8533,1.2331,-1.969,-1.552,2.8128,354.016,1.0132,0.0822,0.0423,0.1185,0.0,1.0,-1.0
1.352,2.3219,2.6079,2.6457,-2.0187,-1.5587,466.228,-29.1834,0.3273,0.0645,0.3652,0.0,0.0,-5.0
1.5274,2.1817,2.4062,2.5551,-2.0932,-1.5922,414.5107,4.2625,0.5293,0.1474,0.5841,0.0,2.0,-5.0
1.7102,1.9738,2.1431,2.4357,-2.1729,-1.6085,584.8433,3.2212,0.7934,0.1768,0.8504,0.0,1.0,-1.0
1.8723,1.7596,1.9001,-1.6161,-2.2622,2.3283,470.3452,33.8504,1.0645,0.1808,1.1221,0.0,2.0,-5.0
1.4954,1.6091,2.0355,-2.3208,-1.5597,2.2031,607.1995,33.3353,1.3259,0.0782,1.4043,0.0,1.0,-1.0
1.3704,1.2318,2.1737,-1.4658,-2.3823,2.0892,458.611,64.6018,1.5721,-0.0477,1.7118,0.0,2.0,-5.0
1.2447,0.9953,2.2377,-1.3122,-2.3778,1.9859,454.4855,32.8998,1.7317,-0.2223,1.9493,0.0,0.0,-5.0
0.7318,1.0837,2.2988,-2.4586,-1.1227,2.909,600.5019,36.0535,1.9582,-0.3735,2.2221,0.0,1.0,-10.0
0.9557,2.2614,0.532,-0.9329,2.8087,-2.6462,96.4468,69.7948,2.1672,-0.4731,2.4791,0.0,2.0,-10.0
0.9521,2.2638,0.5316,-0.9319,2.8075,-2.6531,21.1403,68.0288,2.1706,-0.4717,2.5066,0.0,0.0,-10.0
0.9125,2.284,0.5405,-0.9337,-2.733,-2.7251,11.0862,87.9518,2.2014,-0.4469,2.5117,0.0,2.0,-10.0
0.9098,2.2668,0.5232,-0.9135,-2.7361,-2.7383,75.2913,80.3255,2.2147,-0.4599,2.5371,0.0,1.0,-10.0
0.8818,2.2823,0.5392,-0.9233,-2.7471,-2.7846,-32.7314,91.4924,2.2316,-0.4359,2.5433,0.0,2.0,-10.0
1.0192,2.4684,2.7818,2.7517,-1.8834,-2.632,187.8794,8.7793,0.0713,-0.182,4.9631,0.0,2.0,-5.0
1.0834,2.2748,2.6664,2.5748,-1.8976,-2.6904,410.9846,37.7423,0.2657,-0.2108,5.1597,0.0,2.0,-5.0
1.1562,2.0469,2.484,2.3815,-1.8962,-1.4161,454.8463,4.7954,0.4806,-0.2867,5.3882,0.0,0.0,-5.0
2.2666,1.3125,1.8341,-1.3965,2.253,-1.9296,431.1726,-24.2874,0.7027,-0.2972,5.6123,0.0,0.0,-5.0
1.9959,1.5819,1.6428,-1.4275,2.2036,-2.0463,619.1765,-21.4285,0.9595,-0.1891,5.8917,0.0,1.0,-1.0
1.4734,1.6862,1.9084,-2.2287,-1.49,2.1752,662.9127,-21.4854,1.2543,-0.0402,6.2219,0.0,1.0,-1.0
1.4203,2.1953,1.3698,-1.5643,2.1554,-2.4195,485.9761,9.9131,1.5147,0.0868,6.5431,0.0,2.0,-5.0
1.1782,2.4045,1.2409,-1.5807,-0.6744,-2.5777,435.6283,39.0531,1.7568,0.1076,6.7887,0.0,2.0,-5.0
0.9603,1.0392,2.3619,-1.4707,-2.7038,-0.5721,427.8258,67.7776,1.9795,-0.0,7.0519,0.0,2.0,-5.0
0.8328,0.7774,2.4539,-1.1964,-2.8003,-0.4641,609.1378,66.3141,2.1598,-0.2086,7.3437,0.0,1.0,-10.0
0.8147,2.2444,0.5098,-0.8513,-2.7835,-2.9483,509.4224,35.5721,2.3222,-0.4409,7.6278,0.0,0.0,-10.0
0.7085,2.2009,0.5101,-0.728,-1.8369,3.0563,198.458,42.5769,2.4635,-0.4329,7.7984,0.0,0.0,-10.0
0.7094,2.1719,0.4912,-0.6822,-1.8302,3.0036,-36.1729,49.3265,2.4877,-0.4546,7.878,0.0,1.0,-10.0
0.8097,2.0655,0.3714,-0.5943,-2.833,2.9752,178.1121,46.7436,2.4816,-0.5749,7.9664,0.0,2.0,-10.0
0.9741,1.8327,0.1921,-0.4083,-2.8306,2.4113,78.8322,-20.6905,2.5482,-0.7981,8.3797,0.0,1.0,-1.0
2.4916,2.8235,1.2038,-1.9581,-1.5368,2.7771,437.3423,0.6035,0.1131,-0.0,9.2879,0.0,1.0,-1.0
1.3341,2.2272,2.5353,2.5737,-2.0071,-1.5329,600.0292,0.1783,0.4014,-0.0,9.5762,0.0,1.0,-1.0
1.5189,2.0168,2.2773,2.4451,-2.0791,-1.5464,447.9938,-30.9615,0.6583,0.0404,9.8551,0.0,0.0,-5.0
1.764,1.887,2.0463,2.389,-2.1957,-1.6035,572.1932,-30.7383,0.8897,0.1628,10.1179,0.0,1.0,-1.0
1.7989,2.0611,1.8044,-2.3543,2.3533,-1.7,616.6118,-31.0923,1.1456,0.3285,10.4228,0.0,1.0,-1.0
1.7686,2.3264,1.6136,-2.5044,2.3323,-1.8114,466.8311,-62.6132,1.3679,0.4805,10.6929,0.0,0.0,-5.0
1.8434,2.212,1.5452,-2.6148,-0.9238,-1.9391,401.3448,-29.8105,1.4934,0.6523,10.9063,0.0,2.0,-5.0
1.4561,1.888,2.0072,-2.0623,-2.7222,-0.9284,381.6525,-1.4674,1.6512,0.7832,11.1129,0.0,2.0,-5.0
1.2722,1.7759,1.8539,-2.1945,-0.8688,-2.8585,569.0287,-3.9995,1.9023,0.839,11.3711,0.0,1.0,-1.0
1.5296,1.0674,1.8294,-0.7587,-2.3898,-3.0243,622.7358,-4.5892,2.206,0.8757,11.677,0.0,1.0,-1.0
1.2997,0.9242,1.863,-0.6085,-2.6702,3.0905,619.4567,-5.0113,2.5153,0.9194,11.9895,0.0,1.0,-1.0
1.1131,0.872,1.9444,-0.4007,-3.0141,2.9323,624.5537,-5.5812,2.8241,0.9609,12.301,0.0,1.0,-1.0
0.9264,2.0625,0.9908,2.9726,2.8104,-0.1698,476.6789,-36.8158,3.0908,1.0092,12.573,0.0,0.0,-5.0
1.122,2.2761,0.8363,2.7955,2.7372,0.0686,578.2817,-35.5351,3.3156,1.1514,12.8398,0.0,1.0,-1.0
0.7268,1.3449,2.413,0.367,2.6923,-0.008,440.778,-5.475,3.5191,1.3074,13.0968,0.0,2.0,-10.0
0.7689,1.5148,2.3462,0.6685,2.5853,0.0838,448.3654,-39.4856,3.7348,1.3823,13.3257,0.0,0.0,-10.0
1.7748,0.8272,2.2148,2.5268,1.0099,0.1909,596.1706,-38.6767,3.9587,1.5458,13.6037,0.0,1.0,-1.0
2.087,2.0678,0.9638,2.4933,0.3232,1.3339,650.1292,-39.186,4.1951,1.7596,13.9225,0.0,1.0,-1.0
2.3628,1.9748,1.1473,2.4701,0.4543,1.536,475.2498,-8.8901,4.4049,1.9458,14.2037,0.0,2.0,-5.0
2.5654,2.0128,1.3674,2.4224,0.5703,1.6002,432.8384,18.7621,4.625,2.026,14.4398,0.0,2.0,-5.0
2.7332,2.1951,1.6402,2.3401,0.6682,1.5779,596.7997,15.803,4.8984,1.9973,14.7157,0.0,1.0,-1.0
2.9264,2.4522,1.9574,2.2484,0.7528,1.5426,660.3383,14.7415,5.2149,1.9306,15.0391,0.0,1.0,-1.0
2.2405,2.6842,3.0355,1.5255,0.8176,2.8373,498.118,-16.9718,5.4965,1.8843,15.3253,0.0,0.0,-5.0
1.1446,2.6935,2.8311,2.955,-1.9277,0.3838,-68.5098,0.7622,-0.1037,-0.0,15.6747,0.0,1.0,-1.0
2.561,2.8873,1.1792,-1.9471,0.4294,2.8364,363.3006,-31.3421,0.0383,-0.0,15.8136,0.0,0.0,-5.0
2.4439,2.7183,1.3505,-2.0182,-1.5782,2.736,401.5604,-60.4164,0.2167,0.1162,16.0403,0.0,0.0,-5.0
2.4306,2.5889,1.6177,-2.1288,-1.6674,2.7117,587.9378,-58.6007,0.3581,0.3458,16.3107,0.0,1.0,-1.0
2.4771,2.4901,1.9327,-2.2559,-1.7854,2.7046,645.7346,-59.1048,0.502,0.6264,16.626,0.0,1.0,-1.0
2.2974,2.4346,2.2636,-0.3931,-1.918,2.7028,657.5272,-59.3209,0.6457,0.9245,16.957,0.0,1.0,-1.0
2.0121,2.4001,2.4353,-0.3916,0.9282,-2.0353,514.2057,-89.9268,0.7577,1.1869,17.2433,0.0,0.0,-5.0
1.7894,2.2809,2.5353,-0.4333,1.0155,-2.1215,431.9863,-57.3952,0.7744,1.4226,17.4802,0.0,2.0,-5.0
1.5671,2.2225,2.4527,-0.4601,1.1129,-1.4304,444.8126,-89.8428,0.8297,1.6426,17.7076,0.0,0.0,-5.0
1.3741,2.1355,2.431,-0.5304,1.2051,-1.5196,406.4413,-57.8686,0.8305,1.8614,17.9271,0.0,2.0,-5.0
1.164,2.1369,2.361,-0.5688,1.306,-1.6048,392.6564,-29.0778,0.8987,2.0659,18.1445,0.0,2.0,-5.0
0.9439,2.2449,2.2254,-0.5321,1.3954,-1.6823,444.1765,-61.2763,1.0467,2.2333,18.3686,0.0,0.0,-5.0
2.1348,0.6783,2.3471,-1.7969,-0.5385,1.5022,572.0667,-58.6174,1.1778,2.4644,18.6348,0.0,1.0,-10.0
2.1727,0.6131,2.326,-1.8353,-0.6367,1.5401,6.1343,-70.7976,1.1611,2.5537,18.7728,0.0,0.0,-10.0
0.5818,2.2539,2.2672,-0.8122,-1.8683,1.5802,201.8047,-81.59,1.1033,2.6464,18.8852,0.0,0.0,-10.0
2.5966,2.8715,1.1683,-1.9417,0.4173,2.8676,-30.9318,5.0871,0.0,-0.0,19.1288,0.0,2.0,-5.0
2.4991,2.8316,1.2009,-1.9569,-1.5369,2.7834,316.7625,38.9311,0.1049,-0.0,19.2337,0.0,2.0,-5.0
1.1805,2.2962,2.6616,2.6114,-1.9429,-1.4947,350.4286,67.3897,0.281,-0.1063,19.4491,0.0,2.0,-5.0
1.1196,2.1269,2.5578,2.4442,-1.8936,-1.4286,370.7152,96.4276,0.403,-0.2665,19.6532,0.0,2.0,-5.0
1.0055,2.024,2.3493,2.2744,-1.8036,-2.7124,422.465,64.1356,0.4507,-0.4742,19.8669,0.0,0.0,-5.0
0.9733,1.8714,2.0904,2.0139,-1.696,-2.715,572.7467,66.1895,0.5633,-0.7074,20.1266,0.0,1.0,-1.0
1.0317,1.7225,1.8299,1.758,-1.5757,-2.7308,428.4536,97.5627,0.6976,-0.9327,20.3893,0.0,2.0,-5.0
1.58,1.0511,1.7056,-2.6859,1.5071,-1.4234,561.4548,95.9894,0.7329,-1.1916,20.6518,0.0,1.0,-1.0
1.7547,1.1064,1.3476,-1.2759,1.2713,-2.6065,426.2047,127.3783,0.7411,-1.4512,20.912,0.0,2.0,-5.0
1.8982,1.1135,1.2233,-1.1842,1.0725,-2.4647,382.2175,157.4633,0.662,-1.6569,21.1347,0.0,2.0,-5.0
2.155,1.0464,1.246,-1.1457,0.8312,-2.2476,581.6932,156.1436,0.4569,-1.83,21.4046,0.0,1.0,-1.0
1.346,1.0228,2.4209,-2.0535,0.5702,-1.1247,491.7095,126.2406,0.2361,-1.9856,21.6755,0.0,0.0,-5.0
1.4067,1.1499,2.6574,-1.8642,0.3532,-1.0758,567.8506,128.6106,0.0817,-2.2036,21.9432,0.0,1.0,-1.0
1.4947,1.3279,2.8867,-1.694,0.1978,-1.0302,428.6212,160.5049,-0.0551,-2.4267,22.2328,0.0,2.0,-5.0
1.6973,1.4587,3.1503,-1.5872,0.0324,-1.0227,569.5112,159.3255,-0.2688,-2.5826,22.4987,0.0,1.0,-1.0
1.9359,1.593,3.4167,-1.5212,-0.1191,-1.0278,479.5287,129.1595,-0.5053,-2.7065,22.7661,0.0,0.0,-5.0
1.7781,2.0934,3.6254,-0.1882,-1.4458,-1.0093,421.6768,100.8531,-0.6487,-2.8714,22.9868,0.0,0.0,-5.0
2.2132,2.0509,3.8321,-1.3315,-0.1992,-0.9612,591.1495,103.2637,-0.7218,-3.1351,23.2612,0.0,1.0,-1.0
2.3656,2.3595,3.9984,-1.2141,-0.2016,-1.3454,628.1606,103.9527,-0.7884,-3.4364,23.5699,0.0,1.0,-1.0
2.5191,2.6314,4.1172,-1.1221,-0.201,-1.2851,475.7665,74.507,-0.8415,-3.7032,23.8425,0.0,0.0,-5.0
2.5737,2.8373,4.1319,-1.0357,-0.1663,-1.2303,438.2888,45.6169,-0.7857,-3.9229,24.0717,0.0,0.0,-5.0
2.5457,3.028,4.0447,-0.9269,-0.0965,-1.1652,613.19,48.5714,-0.6077,-4.1386,24.3519,0.0,1.0,-1.0
2.5319,3.2526,3.9467,-0.7988,-0.0215,-1.0876,655.8997,49.4883,-0.386,-4.3765,24.6772,0.0,1.0,-1.0
2.5565,3.4596,3.8859,-0.6898,0.0339,-1.0183,472.962,81.015,-0.1987,-4.5824,24.9559,0.0,2.0,-5.0
2.6695,3.6782,3.9242,-0.6111,0.0578,-0.959,449.6149,48.7697,-0.1034,-4.7968,25.1913,0.0,0.0,-5.0
2.7585,3.8977,3.9203,-0.5199,0.0961,-0.8919,577.7327,51.6501,0.0578,-5.0044,25.4837,0.0,1.0,-1.0
3.9019,2.8384,4.1018,-0.8257,-0.4316,0.1362,463.4223,21.4087,0.241,-5.1885,25.7441,0.0,0.0,-5.0
3.8154,2.8392,4.218,-0.7731,-0.3539,0.1812,425.5761,-6.913,0.4443,-5.2736,25.9667,0.0,0.0,-5.0
2.7427,3.6214,4.2594,-0.264,-0.7231,0.2439,597.1874,-3.8696,0.7126,-5.2581,26.2363,0.0,1.0,-1.0
2.6471,3.4227,4.2921,-0.1724,-0.6735,0.3053,462.439,-33.6085,0.9742,-5.2183,26.5018,0.0,0.0,-5.0
2.5142,3.22,4.253,-0.1043,-0.6476,0.3561,405.0956,-0.4659,1.1665,-5.111,26.7226,0.0,2.0,-5.0
2.4571,3.0682,4.2585,-0.0261,-0.6048,-0.2505,381.1601,28.8211,1.3642,-5.0667,26.9275,0.0,2.0,-5.0
2.5116,3.0003,4.2163,0.0562,-0.5388,-1.1138,381.1543,58.3948,1.5694,-5.118,27.1408,0.0,2.0,-5.0
2.6543,3.0291,4.1221,0.1186,-0.4681,-1.0674,422.9571,25.4553,1.7422,-5.2461,27.3565,0.0,0.0,-5.0
2.7985,3.0315,3.9751,0.197,-0.383,-1.0151,569.0435,28.0446,1.9761,-5.3547,27.6146,0.0,1.0,-1.0
2.9452,3.0385,3.8242,0.2715,-0.2976,-0.961,458.035,-2.6577,2.218,-5.4478,27.8748,0.0,0.0,-5.0
2.9598,2.985,3.6397,-0.2323,0.3414,-0.9336,419.9878,-31.9652,2.4276,-5.4232,28.0885,0.0,0.0,-5.0
2.7996,2.9374,3.4162,-0.178,0.4152,-0.9307,435.3115,-61.9382,2.6132,-5.2982,28.3139,0.0,0.0,-5.0
2.6029,2.8225,3.2193,-0.1479,0.4774,-0.955,390.9199,-29.4196,2.7252,-5.1173,28.5274,0.0,2.0,-5.0
2.4296,2.7523,3.0171,-0.1018,0.5479,-0.9714,418.9235,-62.7845,2.8619,-4.9598,28.7365,0.0,0.0,-5.0
2.618,2.1906,2.8035,0.6281,-0.065,-1.0184,554.9638,-61.564,2.9666,-4.7288,28.9904,0.0,1.0,-1.0
2.4843,1.9469,2.6081,0.7133,-0.0282,-1.0791,460.9519,-93.1125,3.0539,-4.489,29.2468,0.0,0.0,-5.0
2.2877,1.6926,2.5108,0.7817,-0.0408,-1.1714,551.5275,-91.7183,3.0399,-4.2341,29.5027,0.0,1.0,-1.0
2.0876,1.4486,2.4659,0.8507,-0.0769,-1.2705,403.796,-61.753,2.9976,-3.9872,29.7535,0.0,2.0,-5.0
1.9714,1.2346,2.39,0.9393,-0.0724,-1.353,424.1667,-94.115,3.0195,-3.7742,29.9684,0.0,0.0,-5.0
1.8266,1.0295,2.3873,1.0209,-0.12,-1.4417,419.926,-121.7229,2.9856,-3.565,30.1816,0.0,0.0,-5.0
1.6033,0.8322,2.4348,1.1009,-0.3065,0.1808,567.9164,-119.5848,2.8578,-3.3363,30.444,0.0,1.0,-1.0
1.344,0.685,2.1577,1.2121,-0.6641,0.1239,621.7933,-118.8412,2.6867,-3.0823,30.7503,0.0,1.0,-10.0
1.1609,0.9123,2.2284,1.0685,-0.8138,0.0115,-212.9062,-63.0759,2.4458,-3.1694,30.8633,0.0,2.0,-5.0
1.0172,0.9527,2.1478,1.0832,-0.9629,-0.0434,194.0959,-86.0938,2.3269,-3.087,30.9397,0.0,0.0,-5.0
0.9158,0.9133,1.9991,1.2078,-1.1263,-0.0679,265.6869,-50.1175,2.2844,-2.9356,31.0989,0.0,2.0,-5.0
0.9492,0.7607,1.7852,1.4491,-1.3281,-0.0278,506.6541,-50.1381,2.3705,-2.7257,31.3281,0.0,1.0,-10.0
1.0732,0.6128,1.5721,1.6632,-1.6222,0.0489,448.1611,-80.4273,2.4969,-2.5114,31.5774,0.0,0.0,-10.0
1.1734,0.6271,1.3264,1.8729,-2.0364,0.097,561.2939,-77.1978,2.5485,-2.2613,31.8333,0.0,1.0,-10.0
0.7528,1.0798,1.2972,-2.3585,0.1466,2.0526,456.4822,-107.3548,2.5778,-2.0093,32.0876,0.0,0.0,-10.0
0.8215,0.9909,1.3719,0.1017,-2.4843,2.2409,568.3068,-104.8099,2.5035,-1.7584,32.3505,0.0,1.0,-1.0
0.5789,1.2443,1.4614,-0.0332,-2.5362,2.4134,415.6151,-73.3271,2.4008,-1.5197,32.6109,0.0,2.0,-10.0
0.6458,1.1535,1.4586,0.0709,-2.5502,2.3502,-13.3757,-58.8297,2.4658,-1.5853,32.6394,0.0,2.0,-10.0
0.6325,1.1299,1.5382,0.2097,-2.626,2.3227,197.8219,-35.2888,2.5518,-1.5598,32.734,0.0,2.0,-10.0
0.7135,1.0401,1.5406,0.2762,-2.6464,2.2626,19.2793,-28.265,2.6147,-1.6276,32.8523,0.0,2.0,-10.0
0.7758,0.9694,1.6498,0.4551,-2.7746,2.2011,332.7491,-39.8525,2.7611,-1.638,33.0104,0.0,1.0,-10.0
0.7778,1.051,1.5989,0.7641,-2.9978,0.0146,510.4164,-43.2303,2.9583,-1.5027,33.2505,0.0,1.0,-10.0
0.8213,1.241,1.4164,1.1148,3.1024,0.1578,577.7349,-44.2072,3.1575,-1.3028,33.5329,0.0,1.0,-1.0
0.9221,1.2641,1.2679,1.3867,-1.4931,0.314,432.5233,-14.155,3.3266,-1.1099,33.7898,0.0,2.0,-5.0
1.0291,1.1389,1.2463,-1.5984,1.5337,0.5236,575.4435,-15.848,3.5582,-0.9833,34.055,0.0,1.0,-1.0
0.7939,1.3042,1.3862,-1.7428,0.73,1.6179,436.5546,13.7615,3.8047,-0.8758,34.3244,0.0,2.0,-10.0
0.591,1.4429,1.5977,-1.8305,0.8466,1.6216,366.7782,41.8726,4.0157,-0.86,34.5377,0.0,2.0,-10.0
0.3747,1.647,1.8004,-1.7806,0.8954,1.5749,429.0402,8.5518,4.2204,-0.9337,34.7561,0.0,0.0,-10.0
0.3417,1.6959,1.8272,-1.6674,0.8844,1.5502,-40.8928,22.5292,4.2468,-0.9788,34.8811,0.0,2.0,-10.0
2.5966,2.8715,1.1683,-1.9417,0.4173,2.8676,49.4318,16.5944,0.0,-0.0,34.9832,0.0,2.0,-5.0
1.2128,2.3878,2.7262,2.6913,-1.961,-1.5235,555.2301,15.4884,0.2118,-0.0328,35.2128,0.0,1.0,-1.0
1.3056,2.1245,2.4665,2.4905,-1.985,-1.4969,460.6385,46.5281,0.4752,-0.0861,35.4819,0.0,2.0,-5.0
1.3435,1.8984,2.2875,2.3196,-1.9661,-1.4366,409.9517,75.6883,0.668,-0.2101,35.7135,0.0,2.0,-5.0
2.2003,1.3071,1.6894,-1.3199,2.113,-1.8656,605.3242,73.6445,0.8036,-0.4502,35.9906,0.0,1.0,-1.0
1.2955,1.5257,1.968,1.8955,-1.7219,-2.876,478.6907,104.7574,0.9117,-0.7115,36.274,0.0,2.0,-5.0
1.2368,1.5123,1.7437,1.7156,-1.5674,-2.8385,430.3454,133.9788,0.9078,-0.9462,36.5115,0.0,2.0,-5.0
1.5783,1.1159,1.636,-2.7316,1.5365,-1.4348,466.351,100.9413,0.7991,-1.163,36.7547,0.0,0.0,-5.0
1.7461,1.0996,1.3706,-1.2906,1.2952,-2.6173,579.4703,102.5578,0.7421,-1.4239,37.0225,0.0,1.0,-1.0
1.8697,1.1664,1.1723,-1.1603,1.0675,-2.4775,472.1205,71.3789,0.7057,-1.6872,37.2892,0.0,0.0,-5.0
1.9243,1.3269,0.9732,-1.045,0.9403,-2.3786,423.4732,104.1612,0.7557,-1.907,37.5151,0.0,2.0,-5.0
0.8303,1.4649,2.0402,-2.1992,0.8216,-0.9533,419.53,70.1417,0.7566,-2.1223,37.7311,0.0,0.0,-5.0
0.6676,1.6537,2.106,-2.0222,0.7636,-0.8575,410.7412,41.1464,0.8275,-2.3192,37.9425,0.0,0.0,-10.0
0.558,1.8116,2.1734,-1.8061,0.7253,-0.7839,94.8277,11.6552,0.8856,-2.4803,38.1419,0.0,0.0,-10.0
0.4764,1.969,2.1584,-1.5281,0.6999,-1.5301,303.7268,13.027,0.9523,-2.6308,38.3162,0.0,1.0,-10.0
0.441,1.9795,2.1228,-1.5613,0.7187,-1.537,45.1873,16.7683,0.9873,-2.6146,38.4158,0.0,1.0,-10.0
0.4182,1.9706,2.0982,-1.6401,0.7389,-1.5524,22.75,17.7891,1.0111,-2.5814,38.4585,0.0,0.0,-10.0
0.4042,1.9824,2.0844,-1.6344,0.7429,-1.5507,54.943,59.69,1.0249,-2.5847,38.5072,0.0,2.0,-10.0
0.4558,2.0242,2.1354,-1.4147,0.6936,-1.5059,-38.3968,17.4671,0.978,-2.6813,38.5851,0.0,0.0,-10.0
0.4357,2.0761,2.109,-1.3069,0.6914,-1.4848,188.7094,25.3759,1.0077,-2.7241,38.6337,0.0,1.0,-10.0
2.612,2.8336,1.2083,-1.9565,0.4232,2.877,-36.1052,6.273,0.0,0.0416,38.6475,0.0,2.0,-5.0
2.4434,2.753,1.2673,-1.9842,-1.5506,2.7373,515.7542,8.4635,0.1825,0.0404,38.8362,0.0,1.0,-1.0
1.3786,2.1552,2.4556,2.5249,-2.0227,-1.5317,612.4064,8.695,0.4813,-0.0,39.1538,0.0,1.0,-1.0
1.5469,1.9204,2.191,2.3848,-2.083,-1.527,464.6179,-22.3954,0.7461,-0.0,39.4186,0.0,0.0,-5.0
1.7327,1.7813,1.9878,2.3245,-2.1683,-1.5532,388.378,10.6858,0.9474,0.0611,39.6482,0.0,2.0,-5.0
1.7796,1.8891,1.6125,-1.5504,2.2484,-2.2404,396.7132,39.2617,1.1557,0.0597,39.858,0.0,2.0,-5.0
1.5523,1.3623,2.0159,-1.4765,-2.2837,2.133,563.2597,37.7159,1.3895,-0.0501,40.1497,0.0,1.0,-1.0
1.3183,1.054,2.1695,-1.3312,-2.3284,2.0026,631.6955,37.598,1.6543,-0.2169,40.4626,0.0,1.0,-1.0
0.7922,1.1529,2.2911,-2.3874,-1.1606,2.9442,450.7911,68.3761,1.8777,-0.3638,40.7305,0.0,2.0,-10.0
1.133,2.1457,0.5805,-0.9727,2.8725,-2.3292,57.7601,97.5801,1.9986,-0.5419,40.9481,0.0,2.0,-10.0
0.706,1.2944,2.0826,-2.132,-1.0344,2.9512,106.5886,72.3552,1.8223,-0.5654,41.1464,0.0,1.0,-10.0
0.7001,1.4288,1.9249,-1.9014,-0.9681,2.9695,293.5196,95.2957,1.7579,-0.7139,41.3103,0.0,2.0,-10.0
0.681,1.5385,1.7627,-1.6668,-0.8871,2.9625,323.1804,121.072,1.7422,-0.8759,41.4731,0.0,2.0,-10.0
0.7698,1.5344,1.7402,-1.3703,2.9862,-0.8174,528.9871,117.6938,1.6657,-1.0944,41.7051,0.0,1.0,-10.0
0.9191,1.916,1.2875,-1.1305,1.4619,3.0167,453.7536,85.6099,1.5886,-1.3329,41.9566,0.0,0.0,-5.0
1.0415,1.7671,1.0267,-0.8851,-2.1332,2.9597,587.6039,87.0977,1.614,-1.6007,42.2262,0.0,1.0,-1.0
0.7851,1.5978,1.1912,2.837,-2.0114,-0.6879,476.2744,56.3441,1.6637,-1.8614,42.4922,0.0,0.0,-10.0
0.6637,1.4187,1.2783,2.5839,-1.9276,-0.5249,393.5117,89.4449,1.7795,-2.0473,42.7119,0.0,2.0,-10.0
0.6007,1.2835,1.3774,2.3133,-1.8377,-0.4101,88.9758,119.0173,1.8708,-2.2043,42.9133,0.0,2.0,-10.0
0.6014,1.1714,1.4594,2.0645,-1.7575,-0.3223,172.4024,125.7126,1.9579,-2.3254,43.0696,0.0,1.0,-10.0
0.5567,1.1339,1.6288,1.7556,-1.6014,-0.2765,290.3686,139.8038,1.9755,-2.5081,43.2569,0.0,1.0,-10.0
0.5439,1.1557,1.8194,1.4007,-1.4322,-0.2532,39.1501,177.1137,1.9643,-2.7025,43.4585,0.0,2.0,-10.0
2.56,2.8877,1.1795,-1.9473,0.4298,2.8355,220.4669,25.2321,0.0394,-0.0,43.7207,0.0,2.0,-5.0
1.2505,2.3833,2.7062,2.6893,-1.9767,-1.5353,374.1799,54.1907,0.2304,-0.0,43.9118,0.0,2.0,-5.0
1.2273,2.1673,2.5368,2.5099,-1.9523,-1.4799,432.349,20.4584,0.4086,-0.1342,44.1448,0.0,0.0,-5.0
1.2887,1.9546,2.3535,2.3478,-1.948,-1.4356,402.2999,52.9867,0.6029,-0.2211,44.358,0.0,2.0,-5.0
2.1928,1.3317,1.7117,-1.345,2.1508,-1.8956,574.288,50.5726,0.7978,-0.3949,44.6201,0.0,1.0,-1.0
1.4184,1.443,2.0274,1.9299,-1.7908,-2.9347,636.3268,50.2758,1.0118,-0.6262,44.9353,0.0,1.0,-1.0
1.5465,1.2228,1.7939,1.762,-1.6612,-3.0153,471.4261,81.1891,1.2023,-0.8308,45.215,0.0,2.0,-5.0
1.1059,1.5748,1.6368,-1.4818,-3.0719,1.6229,463.694,49.0152,1.3186,-1.0394,45.4546,0.0,0.0,-5.0
0.9701,1.4187,1.8005,-1.3084,3.1029,1.533,455.553,20.5963,1.4832,-1.1928,45.6812,0.0,0.0,-5.0
1.3551,0.8022,1.8543,2.9445,-1.1326,-0.7334,421.244,54.3594,1.6936,-1.2815,45.9103,0.0,2.0,-10.0
1.2784,0.72,1.672,2.7835,-0.856,-2.3127,446.0107,20.9255,1.8763,-1.4131,46.136,0.0,0.0,-10.0
0.6371,1.3065,1.4239,-0.4722,2.5744,-2.3839,597.6516,23.6137,2.1303,-1.5085,46.4079,0.0,1.0,-10.0
0.6472,1.1894,1.4103,-0.0315,-2.5027,2.3818,504.4973,-6.5538,2.3997,-1.588,46.6893,0.0,0.0,-10.0
0.6732,1.0705,1.6313,0.3942,-2.7279,2.2683,605.2426,-4.4052,2.6786,-1.5627,46.9704,0.0,1.0,-10.0
0.7763,1.0453,1.606,0.7485,-2.9874,0.0084,491.447,-35.1849,2.9484,-1.51,47.2462,0.0,0.0,-10.0
0.8495,1.1577,1.4906,1.0201,3.1113,-1.3172,427.7675,-2.1583,3.144,-1.3857,47.4788,0.0,2.0,-5.0
1.0515,1.2195,1.2673,1.2119,-1.3233,2.9061,586.7042,-3.755,3.4046,-1.3105,47.7514,0.0,1.0,-1.0
0.9451,1.2986,1.3963,-1.297,1.3169,2.7226,468.4507,27.7904,3.677,-1.2673,48.028,0.0,2.0,-5.0
0.7519,1.4529,1.5335,-1.1381,2.5623,1.3164,429.769,56.9974,3.9043,-1.327,48.2654,0.0,2.0,-10.0
0.703,1.4267,1.7398,-0.8235,2.4013,1.2501,433.8307,86.1232,4.0712,-1.4895,48.5012,0.0,2.0,-10.0
0.8304,1.3255,1.888,-0.5642,2.2469,1.1494,423.9981,115.911,4.1428,-1.7134,48.7383,0.0,2.0,-5.0
1.0501,1.1626,1.8103,-0.4755,2.1106,-2.3818,410.6728,145.0488,4.1062,-1.9453,48.9753,0.0,2.0,-5.0
1.3258,0.9026,1.7987,-0.521,2.0069,-2.2261,611.5307,143.3996,3.927,-2.1616,49.258,0.0,1.0,-1.0
0.5997,1.6404,1.8816,1.8402,-0.5807,-2.0541,653.5035,143.9439,3.687,-2.3832,49.5848,0.0,1.0,-10.0
0.4999,1.8185,1.8844,1.567,-0.5679,-1.9588,204.1443,141.4324,3.6088,-2.5447,49.8172,0.0,0.0,-10.0
1.8382,0.5188,1.9182,-1.8994,1.3342,-0.5324,-146.4711,-156.6846,3.6133,-2.6645,49.9252,0.0,2.0,-10.0
1.852,0.505,1.9213,-1.8993,1.3361,-0.5394,161.7083,-158.3163,3.6001,-2.6603,49.9579,0.0,1.0,-10.0
0.4911,1.8584,1.8793,1.4843,-0.561,-1.9367,69.0746,-168.4819,3.5982,-2.5853,50.0338,0.0,1.0,-10.0
0.4766,1.7973,1.9235,1.6544,-0.5921,-1.974,-73.7771,177.0491,3.5838,-2.503,50.1152,0.0,1.0,-10.0
2.5966,2.8715,1.1683,-1.9417,0.4173,2.8676,-13.9551,-0.2066,0.0,-0.0,50.2197,0.0,1.0,-1.0
1.2143,2.4651,2.7949,2.7551,-1.9625,-1.5364,331.1832,31.2879,0.1417,-0.0,50.3615,0.0,2.0,-5.0
1.2608,2.2719,2.6058,2.6009,-1.9769,-1.5171,346.7773,59.6921,0.3329,-0.0438,50.5774,0.0,2.0,-5.0
1.2333,2.085,2.4721,2.4417,-1.9438,-1.4584,368.2447,88.9581,0.4784,-0.1813,50.7804,0.0,2.0,-5.0
1.1084,1.9387,2.3489,2.2457,-1.8365,-2.7581,575.6579,87.1305,0.5493,-0.4321,51.0422,0.0,1.0,-1.0
1.0143,1.8335,2.0849,2.0075,-1.705,-2.7347,473.5359,55.8302,0.6031,-0.6958,51.3118,0.0,0.0,-5.0
1.0768,1.6776,1.8175,1.7552,-1.5791,-2.7547,597.887,58.4783,0.7425,-0.9273,51.5827,0.0,1.0,-1.0
1.2372,1.5072,1.5216,1.5166,-2.7971,-1.4054,639.335,58.7626,0.9193,-1.1917,51.9008,0.0,1.0,-1.0
1.4352,1.2442,1.4143,-1.2307,-2.8471,1.3606,462.5813,89.5203,1.0671,-1.4198,52.1732,0.0,2.0,-5.0
1.4796,1.5161,1.0272,-1.0842,1.2289,-2.8289,407.4806,118.1065,1.1123,-1.6331,52.3933,0.0,2.0,-5.0
1.6841,1.5576,0.8123,-0.9654,1.0502,-2.6365,607.2115,116.5769,1.0352,-1.8995,52.6717,0.0,1.0,-10.0
0.6773,1.6148,1.9183,-2.3171,0.8824,-0.8887,458.4286,147.9043,0.931,-2.1506,52.9442,0.0,2.0,-10.0
0.7208,1.609,2.1399,-2.0033,0.7442,-0.8777,409.4451,175.9009,0.7739,-2.3083,53.1689,0.0,2.0,-10.0
0.8953,1.534,2.351,-1.8285,0.6099,-0.911,402.6513,-155.8624,0.5626,-2.3822,53.3945,0.0,2.0,-5.0
1.118,1.3939,2.5149,-1.8017,0.49,-0.974,400.299,-127.735,0.3399,-2.3546,53.621,0.0,2.0,-5.0
1.3756,1.151,2.6191,-1.8809,0.3869,-1.0735,601.4255,-130.3569,0.1183,-2.1906,53.8981,0.0,1.0,-1.0
0.8696,1.6726,2.7386,0.2305,-1.9629,-1.1851,642.4798,-130.8393,-0.1174,-1.9713,54.2407,0.0,1.0,-1.0
0.66,1.9401,2.8739,-0.017,-2.0105,-1.2729,498.7626,-161.9612,-0.3273,-1.7846,54.5224,0.0,0.0,-10.0
0.6342,2.175,3.0716,-0.3829,-1.9961,-1.3168,458.4646,168.81,-0.553,-1.713,54.7612,0.0,0.0,-10.0
0.8078,2.4214,3.3512,-0.6949,-1.9362,-1.3285,619.6846,170.6745,-0.8333,-1.7451,55.044,0.0,1.0,-1.0
1.0425,2.6571,3.6292,-0.8575,-1.878,-1.3299,486.3849,139.4529,-1.1044,-1.8069,55.3229,0.0,0.0,-5.0
1.2736,2.8045,3.8467,-0.8766,-1.8123,-1.3082,429.3658,171.7324,-1.2949,-1.9395,55.5558,0.0,2.0,-5.0
2.5966,2.8715,1.1683,-1.9417,0.4173,2.8676,130.4068,21.4805,0.0,-0.0,56.6295,0.0,2.0,-5.0
1.2052,2.3614,2.7064,2.669,-1.957,-1.5162,536.5831,19.5636,0.2326,-0.0516,56.8861,0.0,1.0,-1.0
1.3104,2.057,2.4134,2.438,-1.9786,-1.4789,622.7542,18.1803,0.5317,-0.1255,57.1942,0.0,1.0,-1.0
2.1605,1.4551,1.796,-1.4418,2.2756,-2.0072,472.8668,-13.7962,0.7924,-0.182,57.4617,0.0,0.0,-5.0
1.9352,1.6566,1.62,-1.4502,2.2097,-2.0903,437.254,-43.7652,1.0138,-0.1369,57.6902,0.0,0.0,-5.0
1.7491,1.8784,1.55,-1.5159,2.2127,-2.2233,449.7106,-73.4603,1.1885,-0.0,57.9267,0.0,0.0,-5.0
1.665,1.6389,2.0912,-1.6525,-2.3685,2.2767,442.5089,-103.1399,1.2755,0.2319,58.1824,0.0,0.0,-5.0
1.8638,2.2544,1.7406,-2.4579,2.378,-1.8073,595.1656,-101.7815,1.2428,0.5038,58.4578,0.0,1.0,-1.0
1.8781,2.1108,2.3048,-1.9366,-2.5143,-0.15,463.5826,-71.728,1.1811,0.7678,58.7292,0.0,2.0,-5.0
1.9399,2.0904,2.2717,-2.0442,-0.1523,-2.579,400.2546,-43.7419,1.2084,0.9805,58.946,0.0,2.0,-5.0
1.925,1.8486,2.0508,-2.185,-0.0888,-1.1804,601.5689,-46.3075,1.3618,1.2053,59.2189,0.0,1.0,-1.0
1.8177,1.627,1.9296,-1.2541,0.0033,-2.3268,481.1583,-76.8107,1.5309,1.4197,59.4927,0.0,0.0,-5.0
1.3634,1.6852,2.0756,0.0546,-1.3916,-2.443,595.5726,-76.0079,1.6001,1.6854,59.7682,0.0,1.0,-1.0
1.6045,1.0579,2.2921,-1.5776,0.1215,-2.5485,638.2968,-76.6141,1.6538,1.9966,60.0841,0.0,1.0,-1.0
1.5908,0.7528,2.3127,-1.7791,0.2362,-0.9176,648.2615,-76.9156,1.7018,2.3148,60.4059,0.0,1.0,-10.0
1.5485,0.6259,2.1434,-1.8954,0.4371,-0.9535,75.2129,-84.1368,1.7906,2.4796,60.6974,0.0,1.0,-10.0
1.4646,0.6363,2.0248,-1.9527,0.6275,-0.9434,71.3502,-123.4607,1.8992,2.5316,60.8236,0.0,0.0,-10.0
1.4605,0.6295,2.0058,-1.9663,0.6578,-0.9469,43.9972,-108.1603,1.9105,2.5485,60.8566,0.0,2.0,-10.0
1.4708,0.6167,2.0045,-1.9717,0.6607,-0.9533,61.2378,-122.8508,1.9041,2.5597,60.8768,0.0,1.0,-10.0
1.4526,0.6252,1.981,-1.9829,0.6977,-0.9498,-24.2309,-132.3424,1.9273,2.5676,60.8968,0.0,0.0,-10.0
1.4427,0.6287,1.9652,-1.9916,0.7225,-0.9487,-4.9606,-138.2337,1.9414,2.5751,60.9003,0.0,0.0,-10.0
1.4578,0.6141,1.9709,-1.9931,0.7157,-0.9559,62.5507,-124.9787,1.9286,2.5833,60.9193,0.0,1.0,-10.0
2.5524,2.8678,1.2161,-1.9618,0.441,2.8269,49.0903,8.6724,0.0603,0.0317,64.0617,0.0,2.0,-5.0
2.452,2.7531,1.2858,-1.9917,-1.558,2.7438,317.0818,-22.0405,0.1821,0.0607,64.1873,0.0,0.0,-5.0
2.3283,2.5805,1.426,-2.0506,-1.5854,2.6519,356.9682,4.651,0.3547,0.1337,64.3751,0.0,2.0,-5.0
1.5515,2.1858,2.398,2.5586,-2.1043,-1.6019,369.9577,-23.8755,0.5381,0.1705,64.5627,0.0,0.0,-5.0
1.7374,2.0899,2.224,2.5042,-2.1898,-1.6498,418.4415,-52.4508,0.7179,0.2715,64.7706,0.0,0.0,-5.0
1.9193,2.0981,2.1363,2.506,-2.2766,-1.723,340.8744,-73.904,0.8233,0.4198,64.9545,0.0,0.0,-5.0
2.095,2.2112,2.1489,2.5514,-2.352,-1.8151,418.7926,-103.4727,0.8499,0.6159,65.1541,0.0,0.0,-5.0
2.2495,2.2653,2.3323,2.6262,-1.902,-0.3197,436.9068,-128.8486,0.7927,0.8325,65.3799,0.0,0.0,-5.0
2.2515,2.4193,2.3102,-0.387,-1.9367,2.6978,327.611,-149.4255,0.6758,0.9617,65.5562,0.0,0.0,-5.0
2.2468,2.3156,2.3181,-0.4634,0.8149,2.772,334.9189,-121.9172,0.5212,1.0368,65.7287,0.0,2.0,-5.0
2.2053,2.1504,2.3849,-0.5353,0.8148,2.8363,323.997,-97.5624,0.4008,1.1499,65.8951,0.0,2.0,-5.0
2.0988,1.9714,2.5342,-0.6114,0.8528,2.8875,374.0736,-71.7415,0.3208,1.3282,66.0924,0.0,2.0,-5.0
1.9963,1.8583,2.6701,-0.664,0.9031,2.9105,283.703,-101.0366,0.2954,1.4745,66.2413,0.0,0.0,-5.0
1.6531,1.8773,2.88,0.9818,-0.776,2.9576,545.4109,-99.0089,0.2107,1.7067,66.4885,0.0,1.0,-1.0
3.0723,1.7796,1.4662,0.3364,-0.8994,1.0843,404.185,-70.4772,0.1323,1.9396,66.7349,0.0,2.0,-5.0
2.8739,1.6491,1.386,0.3633,-0.9984,1.2235,466.6945,-74.7674,0.1395,2.1534,66.9498,0.0,1.0,-1.0
2.6641,1.5101,1.3501,0.4042,-1.1211,1.3959,414.0895,-101.9969,0.1657,2.3902,67.1884,0.0,0.0,-5.0
2.4416,1.475,1.2801,0.4212,-1.2713,1.5601,477.7264,-98.7286,0.1163,2.6114,67.4157,0.0,1.0,-1.0
2.2377,1.4966,1.2257,0.4289,-1.4084,1.7179,369.2015,-98.6123,0.0487,2.8047,67.6205,0.0,1.0,-1.0
2.0824,1.5285,1.2092,0.4373,-1.5096,1.8456,335.1716,-123.7234,0.0,2.9533,67.797,0.0,0.0,-5.0
1.9493,1.6164,1.1571,0.4179,-1.5779,1.9543,236.6389,-103.3598,-0.0907,3.0581,67.9497,0.0,2.0,-5.0
1.8062,1.6817,1.1597,0.4172,-1.6552,2.078,307.2828,-130.5542,-0.1501,3.1884,68.0932,0.0,0.0,-5.0
1.7066,1.7552,1.1459,0.4011,-1.6975,2.1669,180.7379,-142.6979,-0.2155,3.2685,68.1972,0.0,0.0,-5.0
1.5723,1.9,1.0983,0.3463,-1.7368,2.3047,311.5841,-116.0276,-0.3483,3.3607,68.3593,0.0,2.0,-5.0
1.1395,1.3738,2.053,2.4869,0.3046,-1.808,462.2464,-114.8113,-0.4699,3.5291,68.5677,0.0,1.0,-1.0
1.2463,1.1419,2.2296,2.668,0.2537,-1.8843,435.4258,-143.126,-0.5953,3.7343,68.8088,0.0,0.0,-5.0
1.3009,0.9852,2.4274,2.8266,0.1233,-1.9133,388.5569,-169.8928,-0.7607,3.862,69.0193,0.0,0.0,-5.0
1.2906,0.9438,2.6233,2.9794,-0.0779,-1.9016,409.4446,164.4214,-0.9554,3.8988,69.2193,0.0,0.0,-5.0
1.2253,1.0267,2.7999,3.1356,-0.2707,-1.8619,387.4103,142.3285,-1.1564,3.8504,69.428,0.0,0.0,-5.0
1.1281,1.1707,2.9083,-3.0228,-0.3629,-1.8134,326.1962,163.3535,-1.2975,3.7453,69.6043,0.0,2.0,-5.0
1.3099,3.0489,1.0806,-0.4571,-1.7748,-2.8638,457.6469,160.2287,-1.4601,3.6643,69.7863,0.0,1.0,-1.0
1.5175,3.2594,1.0724,-0.5643,-1.7282,-2.6249,449.2929,-168.6729,-1.6935,3.5575,70.0433,0.0,2.0,-5.0
1.6619,3.4473,1.1504,-0.6512,-1.7079,-2.4592,392.5164,160.3276,-1.8893,3.5179,70.2435,0.0,0.0,-5.0
1.7812,3.5552,1.1841,-0.6828,-1.6867,-2.3506,183.9936,-179.4213,-2.0058,3.4578,70.3758,0.0,2.0,-5.0
1.9465,3.7668,1.3281,-0.7593,-1.6722,-2.2198,514.4097,178.8749,-2.2218,3.4278,70.5944,0.0,1.0,-1.0
2.1489,4.0158,1.5215,-0.8349,-1.6582,-2.1031,433.265,157.968,-2.4748,3.3973,70.8502,0.0,0.0,-5.0
2.3617,4.2067,1.6539,-0.8611,-1.6312,-1.9916,475.5705,156.4764,-2.6734,3.3008,71.0715,0.0,1.0,-1.0
2.5625,4.3762,1.7784,-0.8746,-1.605,-1.8978,362.2165,134.9265,-2.848,3.1963,71.2758,0.0,0.0,-5.0
2.7583,4.4999,1.858,-0.8611,-1.5698,-1.7973,416.3814,107.8657,-2.9743,3.0424,71.4763,0.0,0.0,-5.0
2.928,4.5585,1.8781,-0.8229,-1.5273,-1.6899,394.686,84.8851,-3.0285,2.8484,71.6797,0.0,0.0,-5.0
3.0237,4.5568,1.8556,-0.7844,-1.4945,-1.6109,425.0222,85.6126,-3.0179,2.6995,71.8292,0.0,1.0,-1.0
1.1057,2.5737,2.9186,2.8517,-1.9181,-2.6302,230.1728,-16.3304,0.0,-0.0651,71.9747,0.0,0.0,-5.0
1.2164,2.4599,2.7892,2.7508,-1.9634,-1.5364,269.0168,5.9197,0.1474,-0.0,72.1535,0.0,2.0,-5.0
1.2745,2.3346,2.6531,2.6518,-1.9857,-1.5346,261.9816,-10.7864,0.2835,-0.0,72.2896,0.0,0.0,-5.0
1.3198,2.2517,2.5622,2.5909,-2.002,-1.5333,206.4319,-23.0535,0.3745,-0.0,72.3806,0.0,0.0,-5.0
1.4981,2.1826,2.421,2.5543,-2.0798,-1.5817,412.6885,-20.8087,0.5141,0.1224,72.5779,0.0,1.0,-1.0
1.7316,2.0599,2.2016,2.4867,-2.1866,-1.6402,505.8774,-20.3319,0.7386,0.2487,72.8355,0.0,1.0,-1.0
1.9926,1.9277,2.0403,-2.2831,2.4509,-1.7012,409.5115,-47.4797,0.912,0.3612,73.0428,0.0,0.0,-5.0
2.1019,1.9967,1.9468,2.4475,-2.3705,-1.775,280.5227,-23.7645,1.0286,0.4908,73.2176,0.0,2.0,-5.0
2.2793,1.979,1.829,2.4278,-2.462,-1.8489,385.4801,-49.5812,1.1762,0.5981,73.4007,0.0,0.0,-5.0
1.745,2.0272,2.2894,-1.9632,-2.5695,-1.0075,435.3415,-46.4155,1.3226,0.7633,73.6219,0.0,1.0,-1.0
1.6978,2.0707,2.0995,-2.0965,-1.0459,-0.0282,425.6179,-71.7632,1.4664,0.948,73.8566,0.0,0.0,-5.0
1.7355,1.9624,1.9685,-2.1767,-0.0088,-1.0951,233.6898,-83.2107,1.5083,1.0844,74.0009,0.0,0.0,-5.0
1.7638,1.8597,1.8905,-0.0127,-2.263,-1.1899,471.3573,-82.2431,1.5033,1.283,74.1997,0.0,1.0,-1.0
1.8292,1.5578,2.0016,-1.2959,-0.0178,-2.3407,369.3573,-100.5162,1.4978,1.4892,74.4067,0.0,0.0,-5.0
1.8331,1.4127,2.1328,-1.3785,-0.0472,-2.3773,283.4861,-74.2203,1.4589,1.6355,74.5591,0.0,2.0,-5.0
1.2291,2.2611,1.7956,-0.0449,-2.4371,-1.4777,390.0142,-105.6711,1.4705,1.8188,74.7431,0.0,0.0,-5.0
1.0321,2.4484,1.8379,-0.1018,-2.4748,-1.5894,410.9671,-133.5189,1.4207,2.02,74.9525,0.0,0.0,-5.0
0.9108,2.5152,1.9578,-0.2408,1.3857,-1.661,297.1108,-107.3012,1.3084,2.1621,75.1343,0.0,2.0,-5.0
2.0713,0.7517,2.3995,-1.7522,-0.4173,1.4599,495.4868,-108.64,1.221,2.3595,75.3508,0.0,1.0,-10.0
0.6177,2.2031,2.2983,-0.6871,-1.8388,1.5464,403.985,-134.1069,1.1338,2.5692,75.5784,0.0,0.0,-10.0
2.1677,0.6319,2.3632,1.6015,-0.9741,-1.8741,376.3621,-158.5277,1.0029,2.6916,75.7596,0.0,0.0,-10.0
2.0083,0.7415,2.5411,1.6406,-1.1815,-1.8826,334.0728,-129.6232,0.8397,2.7652,75.9391,0.0,2.0,-10.0
1.9131,0.8154,2.5749,1.6821,-1.3116,0.6801,234.0153,-151.5638,0.7374,2.8377,76.0647,0.0,0.0,-5.0
1.7793,0.9431,2.4272,1.7324,-1.4269,0.6527,309.8683,-126.9518,0.5923,2.9114,76.2277,0.0,2.0,-5.0
1.6732,1.061,2.275,1.8008,-1.5329,0.6338,323.7982,-154.9784,0.4654,3.0065,76.3869,0.0,0.0,-5.0
1.5079,1.2594,2.085,1.8912,-1.6132,0.5838,484.653,-153.2351,0.2673,3.1,76.6062,0.0,1.0,-1.0
1.2993,1.5336,1.8593,2.0316,-1.6728,0.4942,554.2834,-153.1591,0.0,3.2029,76.8934,0.0,1.0,-1.0
1.7051,1.7232,1.1839,0.4236,-1.7097,2.1623,370.9359,-177.9037,-0.181,3.2853,77.1082,0.0,0.0,-5.0
1.6437,1.8997,1.0379,0.3234,-1.6946,2.2551,369.8259,157.169,-0.3595,3.2812,77.288,0.0,0.0,-5.0
1.6664,2.0719,0.8543,0.2067,-1.6491,2.3229,368.8052,134.2036,-0.54,3.2088,77.4834,0.0,0.0,-5.0
1.7995,2.2282,0.6265,0.0998,-1.5719,2.3142,491.3514,134.1499,-0.7026,3.0492,77.7121,0.0,1.0,-10.0
1.7785,2.2048,0.6598,0.1143,-1.5826,2.3164,1.0847,140.6768,-0.679,3.0728,77.7299,0.0,2.0,-10.0
1.762,2.2169,0.6618,0.1086,-1.5895,2.3456,1.9921,115.3864,-0.6909,3.0881,77.7326,0.0,0.0,-10.0
2.612,2.8336,1.2083,-1.9565,0.4232,2.877,61.5597,-0.713,0.0,0.0416,77.7671,0.0,1.0,-1.0
2.4574,2.7573,1.2875,-1.9923,-1.5593,2.7479,387.0806,29.9563,0.1778,0.0643,77.9522,0.0,2.0,-5.0
1.3562,2.2561,2.5494,2.5972,-2.0185,-1.5471,348.1193,59.3733,0.3863,0.0355,78.1647,0.0,2.0,-5.0
1.3432,2.0478,2.3902,2.4381,-1.9939,-1.4885,378.8378,88.9202,0.5528,-0.1004,78.4106,0.0,2.0,-5.0
1.2667,1.8807,2.3199,2.2741,-1.9156,-1.3969,448.346,56.7308,0.6501,-0.3054,78.638,0.0,0.0,-5.0
1.6668,1.2797,2.1855,-1.8296,2.0678,-2.8542,562.1108,58.2325,0.8088,-0.5146,78.9009,0.0,1.0,-1.0
1.3532,1.4655,1.9523,1.8807,-1.7278,-2.906,417.9969,89.8265,0.9726,-0.712,79.1579,0.0,2.0,-5.0
1.3731,1.3719,1.6829,1.683,-1.5491,-2.9139,577.0333,87.9022,1.0485,-0.9709,79.429,0.0,1.0,-1.0
1.3545,1.4162,1.4177,-1.3533,-2.9059,1.4941,429.1667,119.4733,1.0975,-1.2334,79.6965,0.0,2.0,-5.0
1.4837,1.1822,1.4078,-1.1898,-2.8095,1.3062,571.4972,118.1214,1.0428,-1.4928,79.9632,0.0,1.0,-1.0
1.6674,1.4259,0.9749,-1.0621,1.1143,-2.645,494.1144,87.8008,0.9638,-1.7533,80.2361,0.0,0.0,-5.0
0.7291,1.5834,1.8107,-2.4766,0.957,-0.921,610.2744,90.6682,0.9784,-2.0367,80.5205,0.0,1.0,-10.0
0.6784,1.6147,1.9869,-2.2144,0.8393,-0.8825,213.0602,76.554,0.8856,-2.2033,80.7835,0.0,1.0,-10.0
0.6108,1.7439,2.1626,-1.8799,0.7296,-0.8149,445.2263,66.3825,0.8464,-2.4246,81.0128,0.0,1.0,-10.0
0.5315,1.9417,2.2135,-1.5145,0.6752,-1.5267,414.3623,93.9778,0.8976,-2.6403,81.2348,0.0,2.0,-10.0
0.5857,2.1578,2.2203,-1.062,0.6081,-1.4112,572.5079,90.878,0.9168,-2.8957,81.4911,0.0,1.0,-10.0
0.7372,2.2539,2.3973,-0.7193,-1.2911,0.5527,495.0322,61.1665,0.9425,-3.165,81.7624,0.0,0.0,-10.0
0.8439,2.2139,2.6276,-0.4594,-1.1895,0.5485,449.4247,32.7477,1.0541,-3.3668,81.9952,0.0,0.0,-5.0
2.0886,0.9003,2.8075,-1.0987,-0.2007,-0.4304,456.1877,3.7477,1.2488,-3.4926,82.2293,0.0,0.0,-5.0
1.8632,0.9256,2.7384,-1.0121,0.109,-0.3314,614.4517,7.0641,1.529,-3.5305,82.5126,0.0,1.0,-1.0
1.0076,1.64,2.6727,0.3878,-0.9148,-0.2306,504.7418,-22.8095,1.8093,-3.5431,82.7942,0.0,0.0,-5.0
1.0316,1.4153,2.5421,0.6162,-0.8729,-0.1562,447.2058,-50.9531,2.0245,-3.4523,83.0302,0.0,0.0,-5.0
1.0093,1.1946,2.3602,0.8339,-0.8965,-0.1037,415.3921,-18.4565,2.1758,-3.2887,83.2536,0.0,2.0,-5.0
1.1105,0.9354,2.2101,1.0622,-0.8629,-0.0099,573.4683,-20.2211,2.3982,-3.1511,83.5161,0.0,1.0,-1.0
1.2685,0.6786,2.0911,1.2405,-0.7871,0.0997,472.1051,-51.0072,2.6282,-3.0219,83.781,0.0,0.0,-10.0
1.2801,0.6207,2.0413,1.2872,-0.8149,0.1165,-34.2737,-66.4503,2.6573,-2.9686,83.8968,0.0,0.0,-10.0
1.2362,0.6317,2.0106,1.2993,-0.8871,0.0992,10.9325,-15.9026,2.6192,-2.9419,83.9046,0.0,2.0,-10.0
1.2722,0.5508,1.9534,1.3587,-0.9161,0.1293,-6.6332,-37.6164,2.672,-2.8782,83.9971,0.0,0.0,-10.0
1.2562,0.5636,1.951,1.3562,-0.9342,0.1211,-24.1393,-36.4692,2.6557,-2.8779,84.0086,0.0,0.0,-10.0
1.2306,0.5574,1.9111,1.3832,-1.0088,0.1139,-34.34,-1.6159,2.6372,-2.8399,84.0161,0.0,2.0,-10.0
1.2264,0.5261,1.8577,1.4275,-1.0914,0.1198,-29.1341,14.2729,2.6421,-2.7855,84.0375,0.0,2.0,-10.0
1.2271,0.5232,1.854,1.4308,-1.0969,0.1207,-2.1862,-7.032,2.6434,-2.7816,84.0538,0.0,0.0,-10.0
2.5156,2.8494,1.1948,-1.9542,-1.5371,2.7974,343.0906,1.3618,0.0871,-0.0,87.9348,0.0,1.0,-1.0
1.3474,2.2791,2.5729,2.6137,-2.0155,-1.5488,590.4553,0.4724,0.3626,0.0393,88.2297,0.0,1.0,-1.0
1.5254,2.0655,2.3119,2.4783,-2.0864,-1.5627,469.4772,-31.0683,0.6231,0.0773,88.4938,0.0,0.0,-5.0
1.7254,1.9572,2.1218,2.4269,-2.1798,-1.6097,393.8408,2.1831,0.8148,0.1785,88.7112,0.0,2.0,-5.0
1.8288,1.9064,1.9201,-2.2696,2.3651,-1.6434,426.0221,-31.091,1.0199,0.2353,88.9245,0.0,0.0,-5.0
1.778,2.1122,1.7564,-2.3829,2.3431,-1.7155,406.4708,-60.3218,1.1969,0.3492,89.137,0.0,0.0,-5.0
1.86,2.3582,1.6732,-2.5146,2.3697,-1.855,561.3336,-58.1998,1.3288,0.5651,89.3907,0.0,1.0,-1.0
1.6464,2.0205,2.127,-2.0397,-2.6499,-1.0019,621.6166,-58.5803,1.4663,0.84,89.698,0.0,1.0,-1.0
1.6797,1.9055,1.961,-2.2014,-1.0793,0.0269,474.1494,-89.3683,1.5783,1.0864,89.9694,0.0,0.0,-5.0
1.8012,1.7467,1.8043,-1.1809,0.0382,-2.3023,395.049,-57.075,1.5923,1.3012,90.1853,0.0,2.0,-5.0
1.5228,1.6354,1.9029,0.1062,-1.29,-2.4263,550.5218,-59.357,1.687,1.5325,90.4364,0.0,1.0,-1.0
1.3196,1.4701,2.0085,0.2142,-1.4147,-2.5447,432.0179,-29.0331,1.8061,1.7572,90.6911,0.0,2.0,-5.0
1.2177,1.2625,2.0545,0.3978,-1.5219,-2.6677,550.9152,-32.134,1.9973,1.9241,90.946,0.0,1.0,-1.0
1.058,1.1885,2.1056,-1.6511,0.6071,-2.7869,433.7286,-1.2814,2.2037,2.0706,91.1996,0.0,2.0,-5.0
0.8218,1.3017,1.9281,-1.7464,0.7888,-0.6004,549.5912,-3.5461,2.4491,2.1294,91.453,0.0,1.0,-1.0
0.5412,1.5043,1.7355,-1.9256,0.9518,-0.471,616.972,-3.7061,2.7508,2.1738,91.7579,0.0,1.0,-10.0
1.5964,0.335,1.7043,-0.3359,-2.3165,1.0597,456.1936,-35.3712,3.0121,2.2131,92.023,0.0,0.0,-10.0
1.4346,0.3483,1.8157,-0.2432,-2.9529,1.1638,407.8651,-65.2447,3.1929,2.3279,92.2397,0.0,0.0,-10.0
1.1885,0.5692,1.8686,-0.1787,3.0203,1.3022,568.3279,-63.6558,3.3272,2.5507,92.5006,0.0,1.0,-10.0
0.9483,0.8121,1.9347,-0.1024,2.9141,1.4309,434.1808,-32.8574,3.4414,2.7769,92.7544,0.0,2.0,-5.0
0.7908,1.0062,2.0781,0.0787,2.7945,1.5155,412.623,-3.5718,3.6006,2.9319,92.9779,0.0,2.0,-10.0
0.7434,1.1837,2.2896,0.3814,2.6518,1.5636,465.2293,-35.8903,3.8151,3.0303,93.2146,0.0,0.0,-10.0
1.4398,0.7161,2.5102,2.575,0.7587,1.6321,591.8881,-33.8245,4.0311,3.2006,93.4902,0.0,1.0,-10.0
1.7103,0.7686,2.7292,2.5352,1.1283,1.6974,504.7649,-65.3121,4.233,3.3912,93.7688,0.0,0.0,-10.0
1.941,0.7955,2.8556,2.5593,1.4277,1.7682,456.6979,-94.1563,4.3257,3.6069,94.0064,0.0,0.0,-10.0
2.141,0.7872,2.9023,2.6253,1.7333,1.8504,443.8257,-61.2214,4.3152,3.8477,94.2481,0.0,2.0,-10.0
2.3601,0.8998,3.0206,2.6521,1.9684,1.916,399.5934,-31.8672,4.3681,4.0687,94.4769,0.0,2.0,-5.0
2.5856,1.11,3.2221,2.6332,2.0625,1.9517,402.7565,-2.2956,4.5168,4.2444,94.7092,0.0,2.0,-5.0
2.7818,1.3459,3.4577,2.5842,2.0548,1.9562,465.6133,-34.9336,4.7297,4.3465,94.9462,0.0,0.0,-5.0
2.9983,1.578,3.6859,2.5537,2.0736,1.9704,425.3605,-1.8946,4.9211,4.4808,95.1803,0.0,2.0,-5.0
3.1715,1.7914,3.9018,2.5115,2.0513,1.9658,393.21,26.528,5.1269,4.5483,95.3989,0.0,2.0,-5.0
3.3021,2.017,4.1367,2.4365,1.9679,1.9299,601.4292,25.3739,5.3984,4.5004,95.676,0.0,1.0,-1.0
3.4275,2.2433,4.3658,2.3614,1.889,1.8913,456.6198,56.7,5.6691,4.422,95.9586,0.0,2.0,-5.0
3.4757,2.3936,4.5121,2.2939,1.8092,1.849,468.6062,24.135,5.8643,4.2856,96.1973,0.0,0.0,-5.0
3.5919,2.5878,4.6999,2.2381,1.7607,1.8207,452.0952,-3.942,6.0796,4.2088,96.4276,0.0,0.0,-5.0
3.7007,2.722,4.8325,2.2156,1.7516,1.8139,523.8564,-1.7298,6.216,4.2099,96.5644,0.0,1.0,-1.0
2.5339,2.8691,1.1883,-1.9513,-1.5373,2.813,292.1668,29.3099,0.0675,-0.0,96.8944,0.0,2.0,-5.0
1.231,2.297,2.6401,2.6181,-1.9651,-1.5122,538.894,27.7018,0.2994,-0.0586,97.1522,0.0,1.0,-1.0
1.3115,2.0003,2.3724,2.3927,-1.9697,-1.4609,601.2596,27.3297,0.5769,-0.1642,97.4492,0.0,1.0,-1.0
2.1447,1.4238,1.7345,-1.4001,2.2162,-1.9692,448.4873,58.26,0.8214,-0.2682,97.7155,0.0,2.0,-5.0
1.4861,1.4907,2.0016,2.0381,-1.9028,-1.2918,575.4877,56.265,1.0108,-0.4553,97.983,0.0,1.0,-1.0
1.571,1.2476,1.9119,1.8452,-1.7661,-1.142,616.8018,55.7948,1.1962,-0.699,98.2893,0.0,1.0,-1.0
1.6953,1.0558,1.7071,1.701,-1.6055,-3.1045,463.2207,24.9049,1.3649,-0.9045,98.556,0.0,0.0,-5.0
0.8694,1.6057,1.7695,-1.492,3.0636,-0.8959,401.123,57.2388,1.5533,-1.0096,98.7722,0.0,2.0,-5.0
1.4555,0.7259,1.7558,2.9275,-1.2236,-0.7505,559.4879,55.8194,1.7375,-1.1881,99.0296,0.0,1.0,-10.0
1.2632,0.7931,1.765,2.8685,-0.9631,-2.2796,4.0473,22.4671,1.769,-1.394,99.307,0.0,0.0,-5.0
1.0012,1.7555,1.0583,-0.8859,-2.1551,2.9356,-144.2684,-9.8121,1.6447,-1.5745,99.307,0.0,0.0,-5.0
1.0253,0.9558,1.6095,2.7984,-0.7433,-2.1627,375.7443,-8.6284,1.7733,-1.6449,99.4363,0.0,1.0,-1.0
0.8203,1.1218,1.4445,-0.5599,2.6229,-2.2493,368.9881,-39.2377,1.9844,-1.6362,99.6486,0.0,0.0,-5.0
0.6695,1.2834,1.3605,-0.3874,2.5281,-2.377,199.1494,-41.8446,2.1671,-1.5611,99.8758,0.0,1.0,-10.0
0.6856,1.2246,1.326,-0.1657,-2.4276,2.4172,5.1786,-87.5298,2.307,-1.6174,100.0228,0.0,0.0,-10.0
0.6253,1.2315,1.4027,-0.0929,-2.49,2.4132,-36.997,-117.7905,2.362,-1.5637,100.1167,0.0,0.0,-10.0
0.6745,1.2478,1.3249,-0.1964,-2.4241,2.435,86.9506,-136.8269,2.2884,-1.6027,100.1609,0.0,0.0,-10.0
0.6749,1.2784,1.3572,-0.3857,2.5263,-2.3737,206.4991,-99.9825,2.1661,-1.5665,100.2907,0.0,2.0,-10.0
1.2686,0.675,1.4929,2.6375,-0.5963,-2.3445,114.9229,-83.8306,2.041,-1.4996,100.4388,0.0,1.0,-10.0
1.285,0.6804,1.596,2.7181,-0.75,-2.3346,66.9996,-61.9232,1.9563,-1.4389,100.5437,0.0,1.0,-1.0
1.2181,2.4558,2.7848,2.7474,-1.9641,-1.5363,469.8188,0.882,0.1518,-0.0,100.7515,0.0,1.0,-1.0
1.3404,2.2166,2.5236,2.5663,-2.0093,-1.5327,474.6958,-27.9788,0.4132,-0.0,101.0129,0.0,0.0,-5.0
1.543,2.0851,2.3186,2.4928,-2.0963,-1.5746,423.9115,-57.1275,0.6163,0.1048,101.2601,0.0,0.0,-5.0
1.7686,2.0744,2.1946,2.4956,-2.2047,-1.6582,424.4341,-24.2643,0.7487,0.2875,101.4865,0.0,2.0,-5.0
1.9804,2.0391,2.0515,2.4735,-2.3083,-1.7343,376.7552,3.9118,0.9108,0.4299,101.7042,0.0,2.0,-5.0
1.9246,2.1599,1.8501,-2.4041,2.4106,-1.7817,395.7896,32.0379,1.1258,0.4834,101.928,0.0,2.0,-5.0
1.7503,2.2782,1.6292,-2.478,2.3265,-1.7821,377.319,59.8395,1.3419,0.4377,102.1507,0.0,2.0,-5.0
1.4332,2.3208,1.535,-1.7134,2.2316,-2.5121,376.9203,88.3539,1.5163,0.2996,102.3755,0.0,2.0,-5.0
1.3225,1.2703,2.2541,-1.5287,-2.4538,2.114,595.8094,85.18,1.6136,0.0404,102.6542,0.0,1.0,-1.0
1.282,1.0214,2.2023,-1.319,-2.35,1.9924,501.2566,54.1356,1.6933,-0.2234,102.939,0.0,0.0,-5.0
0.7916,1.1948,2.2535,-2.3305,-1.1464,2.9551,454.9166,24.9718,1.8461,-0.396,103.1719,0.0,0.0,-10.0
1.0608,2.2062,0.5773,-0.9801,2.8541,-2.4546,421.7355,58.0139,2.0539,-0.4948,103.4026,0.0,2.0,-10.0
1.0262,2.2612,0.6183,-1.0223,2.8588,-2.5185,-28.8555,71.6571,2.0593,-0.439,103.4177,0.0,2.0,-10.0
1.0148,2.2625,0.607,-1.0119,2.8519,-2.536,7.4922,39.8734,2.0745,-0.4421,103.4378,0.0,0.0,-10.0
0.9971,2.2714,0.5996,-1.005,2.8445,-2.5649,3.9687,71.9866,2.0932,-0.4385,103.4511,0.0,2.0,-10.0
0.988,2.2711,0.5882,-0.9936,2.8381,-2.5804,8.9946,49.002,2.107,-0.4432,103.4812,0.0,0.0,-10.0
2.5966,2.8715,1.1683,-1.9417,0.4173,2.8676,-15.7778,-1.958,0.0,-0.0,0.0,0.0,1.0,-1.0
1.2078,2.4813,2.8124,2.7685,-1.9598,-1.5367,326.7684,-32.9901,0.1242,-0.0,0.1242,0.0,0.0,-5.0
2.3617,2.6339,1.3728,-2.0281,-1.5729,2.6754,364.646,-62.3994,0.301,0.1016,0.3424,0.0,0.0,-5.0
2.3344,2.5188,1.574,-2.1141,-1.6382,2.6537,390.207,-92.1778,0.4218,0.2656,0.5486,0.0,0.0,-5.0
2.4377,2.5255,1.7724,-2.1927,-1.723,2.7017,402.139,-121.988,0.4387,0.479,0.7649,0.0,0.0,-5.0
1.9278,2.4724,2.6196,2.7821,0.6652,-2.238,418.8422,-89.8462,0.3622,0.6798,0.9803,0.0,2.0,-5.0
2.4708,2.2969,2.1098,-0.5038,0.7097,2.829,385.5673,-61.9623,0.3329,0.8828,1.187,0.0,2.0,-5.0
2.2165,2.1706,2.3699,-0.5271,0.8116,2.8299,574.2782,-64.7768,0.4107,1.131,1.4478,0.0,1.0,-1.0
1.9123,2.0767,2.6772,-0.5505,0.9499,2.8219,619.1369,-65.5575,0.5253,1.4169,1.7557,0.0,1.0,-1.0
1.6521,2.0244,2.6588,-0.581,1.077,-1.4501,452.7722,-36.2996,0.6188,1.6657,2.0223,0.0,2.0,-5.0
1.3921,2.1047,2.4643,-0.5507,1.199,-1.5199,575.6249,-38.7662,0.7971,1.8605,2.2873,0.0,1.0,-1.0
1.1321,2.2308,2.2679,-0.4916,1.3094,-1.5985,479.816,-69.7208,0.9912,2.0487,2.5583,0.0,0.0,-5.0
0.907,2.2667,2.2021,-0.522,1.4092,-1.6959,441.7755,-99.5371,1.0734,2.2605,2.7882,0.0,0.0,-5.0
2.209,0.7361,2.2741,1.5106,-0.7181,-1.7954,451.6648,-128.9137,1.0413,2.4923,3.0243,0.0,0.0,-10.0
2.0797,0.707,2.4471,1.6023,-1.0429,-1.863,443.648,-97.6634,0.9149,2.6906,3.2599,0.0,2.0,-10.0
2.0116,0.7126,2.5912,1.7032,-1.3501,-1.9275,426.2969,-130.3141,0.8303,2.8907,3.4777,0.0,0.0,-10.0
1.8962,0.8425,2.374,1.7993,-1.5802,0.7198,432.2353,-160.3218,0.6831,3.0546,3.7,0.0,0.0,-5.0
1.7276,1.0478,2.1733,1.8784,-1.6679,0.6789,417.1992,-128.0674,0.4827,3.1482,3.9217,0.0,2.0,-5.0
1.6197,1.2345,1.9606,1.9915,-1.7664,0.6564,404.6813,-100.5866,0.3147,3.2866,4.1412,0.0,2.0,-5.0
1.6189,1.3904,1.7365,2.132,-1.8929,0.6776,445.4963,-133.8011,0.2068,3.4868,4.3692,0.0,0.0,-5.0
1.5819,1.5245,1.5858,2.2637,0.6604,-1.9513,414.3982,-163.388,0.0533,3.6357,4.5852,0.0,0.0,-5.0
1.4533,1.3144,1.8523,2.4184,0.5436,-1.9397,590.5499,-161.8184,-0.2021,3.7147,4.8647,0.0,1.0,-1.0
1.342,1.1456,2.1203,2.5955,0.3708,-1.9199,484.9232,167.885,-0.4668,3.772,5.1366,0.0,0.0,-5.0
1.1719,1.1299,2.3651,2.7735,0.1241,-1.8588,606.9718,170.1007,-0.7421,3.7185,5.4176,0.0,1.0,-1.0
1.0349,1.1985,2.597,2.9837,-0.0996,-1.8041,440.67,-158.6212,-1.0011,3.6471,5.6867,0.0,2.0,-5.0
1.0583,1.2258,2.8686,-3.0385,-0.3245,-1.7926,599.6688,-160.3166,-1.2727,3.6778,5.9612,0.0,1.0,-1.0
1.2872,3.1425,1.1711,-0.5374,-1.7913,-2.8139,449.1732,-129.7773,-1.5408,3.7339,6.2357,0.0,2.0,-5.0
1.2932,3.3981,1.4049,-0.7516,-1.8231,-2.6994,595.79,-130.9925,-1.7649,3.8949,6.5129,0.0,1.0,-1.0
1.3405,3.652,1.66,-0.9598,-1.855,-2.6276,503.8099,-161.1391,-1.9799,4.0707,6.7914,0.0,0.0,-5.0
1.496,3.8884,1.8401,-1.0857,-1.8564,-2.5399,449.8415,170.2674,-2.2053,4.1421,7.0299,0.0,0.0,-5.0
1.7564,4.1372,1.9739,-1.1364,-1.8283,-2.415,594.0428,172.5771,-2.4752,4.1005,7.3037,0.0,1.0,-1.0
2.5535,2.8902,1.1817,-1.9483,-1.5376,2.8298,302.874,0.4226,0.0464,-0.0,7.8863,0.0,1.0,-1.0
1.3123,2.3517,2.6516,2.6667,-2.0023,-1.5506,432.4605,31.7884,0.2839,0.0424,8.1444,0.0,2.0,-5.0
1.4157,2.0992,2.3932,2.4889,-2.0357,-1.5307,581.0231,29.7834,0.5437,-0.0,8.4238,0.0,1.0,-1.0
2.1382,1.509,1.8109,-1.4709,2.3018,-2.0431,512.886,0.1382,0.8074,-0.1173,8.7249,0.0,0.0,-5.0
1.9104,1.6834,1.6065,-1.4556,2.2078,-2.1048,424.0088,32.483,1.0372,-0.1235,8.9554,0.0,2.0,-5.0
1.6898,1.3749,1.841,-1.4014,-2.1498,2.1041,438.0249,-1.6916,1.2693,-0.1889,9.197,0.0,0.0,-5.0
1.4896,1.2099,2.019,-1.3786,-2.2422,2.053,426.4974,-27.8541,1.4728,-0.1885,9.4016,0.0,0.0,-5.0
1.2939,1.154,2.2294,-1.4351,-2.4144,2.059,423.8065,-63.5285,1.6529,-0.079,9.6331,0.0,0.0,-5.0
1.2367,2.3779,1.3384,-1.6454,-0.7137,-2.575,543.3607,-102.5146,1.7017,0.1881,9.9172,0.0,1.0,-1.0
1.326,2.2274,1.5793,-1.8333,-0.8039,-2.6354,413.638,-148.6183,1.6544,0.4401,10.1772,0.0,0.0,-5.0
1.8374,2.2714,1.5775,-2.5827,-0.9239,-1.9072,610.4053,-150.9071,1.4458,0.6168,10.4527,0.0,1.0,-1.0
1.8917,2.1226,2.3012,-1.937,-2.5111,-0.1557,641.6486,-152.1847,1.1687,0.7734,10.7712,0.0,1.0,-1.0
2.3597,2.2418,2.1744,2.5947,-0.2777,-1.945,489.152,176.5264,0.911,0.8908,11.0553,0.0,0.0,-5.0
2.2986,2.3927,2.2651,-0.3748,-1.9169,2.6843,431.9034,-149.9061,0.6841,0.9076,11.2834,0.0,2.0,-5.0
2.3174,2.2787,2.2554,-0.4898,0.7779,2.8019,591.4857,-151.6343,0.4354,1.0018,11.5502,0.0,1.0,-1.0
2.3645,1.9851,2.3003,-0.6253,0.7176,2.9413,643.3072,-150.9601,0.1416,1.1296,11.8705,0.0,1.0,-1.0
2.4552,1.7379,2.3629,-0.7382,0.6395,3.0614,515.3776,179.0286,-0.1267,1.2306,12.1739,0.0,0.0,-5.0
2.6668,1.5896,2.3481,-0.8168,0.4881,-3.098,634.3673,-178.6708,-0.4184,1.2211,12.4665,0.0,1.0,-1.0
2.352,2.8955,1.5026,-2.9772,-0.8772,0.3131,470.1852,-147.2983,-0.7009,1.1956,12.7507,0.0,2.0,-5.0
2.4872,3.0588,1.3638,-2.8763,-0.9532,0.1439,598.6668,-149.1562,-0.9682,1.2754,13.0312,0.0,1.0,-1.0
2.674,3.2135,1.2376,-2.7938,-1.0289,-0.0514,474.6587,-118.26,-1.2274,1.3892,13.3149,0.0,2.0,-5.0
2.8986,3.2828,1.0891,-2.7574,-1.1017,-0.221,422.8804,-89.6382,-1.4025,1.5625,13.5634,0.0,2.0,-5.0
3.1121,0.8973,3.1351,-0.1938,-0.3616,-2.7608,406.4359,-60.7177,-1.4812,1.7858,13.8027,0.0,2.0,-5.0
2.8695,3.1473,0.6636,-0.2,-1.241,-0.4494,475.8478,-92.6593,-1.452,2.0274,14.0468,0.0,0.0,-10.0
2.6028,3.0897,0.4456,-0.2294,-1.3284,-0.7694,606.0082,-90.31,-1.4737,2.3051,14.3258,0.0,1.0,-10.0
2.3482,3.075,0.3528,-0.2723,-1.4178,-1.4367,478.3622,-121.7805,-1.5134,2.578,14.6021,0.0,0.0,-10.0
2.1628,3.1731,0.5111,-0.3576,-1.4973,-1.9486,588.4774,-120.4371,-1.6389,2.8137,14.8696,0.0,1.0,-10.0
2.02,3.312,0.7446,-0.4643,-1.5668,-2.1514,446.7195,-90.3957,-1.7864,3.0335,15.1349,0.0,2.0,-10.0
1.8214,3.3798,0.9546,-0.5572,-1.644,-2.3468,584.7134,-92.7735,-1.8451,3.2938,15.4025,0.0,1.0,-1.0
1.5825,3.4559,1.2233,-0.6852,-1.7358,-2.5127,647.9604,-93.5607,-1.8833,3.6144,15.7254,0.0,1.0,-1.0
1.3827,3.5632,1.5135,-0.8555,-1.8221,-2.6141,644.1298,-94.4861,-1.9256,3.9328,16.0467,0.0,1.0,-1.0
1.7817,1.2612,3.6897,-2.6686,-1.0492,-1.8919,495.5678,-126.2922,-1.9754,4.2113,16.3304,0.0,0.0,-5.0
2.022,1.311,3.8906,-2.6493,-1.2345,-1.928,438.579,-157.9791,-2.1194,4.4071,16.5764,0.0,0.0,-5.0
2.2312,1.5018,4.1432,-2.5819,-1.3535,-1.9333,590.3546,-157.0831,-2.3484,4.5159,16.8307,0.0,1.0,-1.0
1.7815,4.4618,2.4871,-1.4469,-1.9311,-2.5012,643.6055,-157.3569,-2.6498,4.6195,17.1495,0.0,1.0,-1.0
2.0324,4.7343,2.7136,-1.5032,-1.9281,-2.4427,476.7645,171.5043,-2.9097,4.7025,17.4231,0.0,0.0,-5.0
2.31,4.9887,2.8866,-1.5035,-1.9053,-2.3651,603.7869,173.7033,-3.1867,4.6843,17.7015,0.0,1.0,-1.0
2.6088,2.8413,1.2001,-1.9535,0.422,2.8751,-6.6162,-0.8113,0.0,0.0331,18.1315,0.0,0.0,-5.0
2.5132,2.8165,1.2699,-1.9842,-1.561,2.7923,302.3417,26.6176,0.1185,0.0685,18.2651,0.0,2.0,-5.0
1.3476,2.2721,2.5669,2.6085,-2.0153,-1.5474,562.1222,24.5215,0.3688,0.036,18.5186,0.0,1.0,-1.0
1.4471,2.0051,2.3056,2.4264,-2.0413,-1.5152,449.2854,55.5956,0.6329,-0.0322,18.825,0.0,2.0,-5.0
2.1047,1.4846,1.7301,-1.4254,2.2355,-2.0077,609.7969,52.9858,0.8525,-0.209,19.1085,0.0,1.0,-1.0
1.5556,1.4301,1.9302,2.0266,-1.9289,-1.2894,648.1867,52.9675,1.0807,-0.44,19.4332,0.0,1.0,-1.0
1.6744,1.1464,1.8134,1.8327,-1.7906,-1.1218,667.6554,52.7148,1.3013,-0.6912,19.7676,0.0,1.0,-1.0
0.9065,1.6642,1.7638,-1.5627,3.0903,-0.9371,661.999,52.4351,1.5136,-0.9484,20.1012,0.0,1.0,-1.0
1.4771,0.7453,1.756,2.9513,-1.2728,-0.7739,514.771,20.9482,1.7076,-1.16,20.3892,0.0,0.0,-10.0
1.4201,0.6012,1.7075,2.7857,-0.9734,-0.6343,465.6439,52.5301,1.923,-1.2793,20.636,0.0,2.0,-10.0
1.3347,0.6071,1.4795,2.6121,-0.5507,-2.3934,541.6773,28.1254,2.1024,-1.4585,20.8929,0.0,1.0,-10.0
0.6618,1.1974,1.3801,-0.0766,-2.476,2.3911,632.3027,14.274,2.3694,-1.601,21.197,0.0,1.0,-10.0
0.7598,0.9921,1.535,0.294,-2.6496,2.2315,473.3082,-21.7343,2.6403,-1.6684,21.4777,0.0,0.0,-10.0
0.7964,0.9718,1.6999,0.5912,-2.8868,-0.0418,443.1026,-52.9802,2.864,-1.6024,21.7144,0.0,0.0,-10.0
0.7943,1.1042,1.5403,0.8902,-3.0768,0.0666,455.936,-21.4337,3.0374,-1.4409,21.9519,0.0,2.0,-10.0
0.8912,1.2354,1.3903,1.1399,3.0436,-1.3521,446.9173,-54.3344,3.2298,-1.3134,22.1834,0.0,0.0,-5.0
0.9556,1.2354,1.2954,1.3732,-1.476,0.3319,442.6143,-82.1736,3.3571,-1.1287,22.4101,0.0,0.0,-5.0
1.055,0.9788,1.2024,0.4512,1.6605,-1.7028,611.6946,-79.6063,3.3949,-0.8534,22.6886,0.0,1.0,-1.0
0.8219,1.0534,1.2567,0.6135,1.9247,-1.9248,487.8491,-110.2006,3.4081,-0.576,22.9672,0.0,0.0,-5.0
0.5941,1.0701,1.4275,0.6998,2.1466,-2.0461,468.5318,-136.9668,3.3176,-0.3585,23.2051,0.0,0.0,-10.0
0.4669,1.0355,1.556,0.6433,2.2663,-2.0622,9.9333,-128.8282,3.215,-0.2776,23.3859,0.0,1.0,-10.0
